digraph Tree {
node [shape=box] ;
0 [label="X[6] <= 60.5\ngini = 0.2636\nsamples = 5673\nvalue = [886, 4787]"] ;
1 [label="X[4] <= 0.0465\ngini = 0.2015\nsamples = 774\nvalue = [686, 88]"] ;
0 -> 1 [labeldistance=2.5, labelangle=45, headlabel="True"] ;
2 [label="gini = 0.2518\nsamples = 88\nvalue = [13, 75]"] ;
1 -> 2 ;
3 [label="X[9] <= 0.365\ngini = 0.0372\nsamples = 686\nvalue = [673, 13]"] ;
1 -> 3 ;
4 [label="gini = 0.0\nsamples = 4\nvalue = [0, 4]"] ;
3 -> 4 ;
5 [label="X[2] <= 0.695\ngini = 0.026\nsamples = 682\nvalue = [673, 9]"] ;
3 -> 5 ;
6 [label="X[3] <= 1.1\ngini = 0.0204\nsamples = 680\nvalue = [673, 7]"] ;
5 -> 6 ;
7 [label="gini = 0.0\nsamples = 2\nvalue = [0, 2]"] ;
6 -> 7 ;
8 [label="X[3] <= 10.7\ngini = 0.0146\nsamples = 678\nvalue = [673, 5]"] ;
6 -> 8 ;
9 [label="X[6] <= 54.5\ngini = 0.0088\nsamples = 676\nvalue = [673, 3]"] ;
8 -> 9 ;
10 [label="gini = 0.0\nsamples = 633\nvalue = [633, 0]"] ;
9 -> 10 ;
11 [label="gini = 0.1298\nsamples = 43\nvalue = [40, 3]"] ;
9 -> 11 ;
12 [label="gini = 0.0\nsamples = 2\nvalue = [0, 2]"] ;
8 -> 12 ;
13 [label="gini = 0.0\nsamples = 2\nvalue = [0, 2]"] ;
5 -> 13 ;
14 [label="X[4] <= 0.0695\ngini = 0.0783\nsamples = 4899\nvalue = [200, 4699]"] ;
0 -> 14 [labeldistance=2.5, labelangle=-45, headlabel="False"] ;
15 [label="X[9] <= 1.125\ngini = 0.0158\nsamples = 4534\nvalue = [36, 4498]"] ;
14 -> 15 ;
16 [label="X[1] <= 0.9125\ngini = 0.0145\nsamples = 4531\nvalue = [33, 4498]"] ;
15 -> 16 ;
17 [label="X[4] <= 0.013\ngini = 0.0136\nsamples = 4527\nvalue = [31, 4496]"] ;
16 -> 17 ;
18 [label="gini = 0.5\nsamples = 4\nvalue = [2, 2]"] ;
17 -> 18 ;
19 [label="X[9] <= 0.805\ngini = 0.0127\nsamples = 4523\nvalue = [29, 4494]"] ;
17 -> 19 ;
20 [label="X[4] <= 0.0675\ngini = 0.0094\nsamples = 4458\nvalue = [21, 4437]"] ;
19 -> 20 ;
21 [label="X[6] <= 275.0\ngini = 0.0076\nsamples = 4432\nvalue = [17, 4415]"] ;
20 -> 21 ;
22 [label="X[6] <= 72.5\ngini = 0.0068\nsamples = 4425\nvalue = [15, 4410]"] ;
21 -> 22 ;
23 [label="X[4] <= 0.057\ngini = 0.0981\nsamples = 116\nvalue = [6, 110]"] ;
22 -> 23 ;
24 [label="X[8] <= 3.375\ngini = 0.0517\nsamples = 113\nvalue = [3, 110]"] ;
23 -> 24 ;
25 [label="gini = 0.0\nsamples = 100\nvalue = [0, 100]"] ;
24 -> 25 ;
26 [label="gini = 0.355\nsamples = 13\nvalue = [3, 10]"] ;
24 -> 26 ;
27 [label="gini = 0.0\nsamples = 3\nvalue = [3, 0]"] ;
23 -> 27 ;
28 [label="X[10] <= 13.575\ngini = 0.0042\nsamples = 4309\nvalue = [9, 4300]"] ;
22 -> 28 ;
29 [label="X[8] <= 2.895\ngini = 0.0033\nsamples = 4286\nvalue = [7, 4279]"] ;
28 -> 29 ;
30 [label="gini = 0.074\nsamples = 52\nvalue = [2, 50]"] ;
29 -> 30 ;
31 [label="X[9] <= 0.785\ngini = 0.0024\nsamples = 4234\nvalue = [5, 4229]"] ;
29 -> 31 ;
32 [label="X[4] <= 0.0665\ngini = 0.0019\nsamples = 4216\nvalue = [4, 4212]"] ;
31 -> 32 ;
33 [label="X[5] <= 6.5\ngini = 0.0014\nsamples = 4198\nvalue = [3, 4195]"] ;
32 -> 33 ;
34 [label="gini = 0.0526\nsamples = 37\nvalue = [1, 36]"] ;
33 -> 34 ;
35 [label="X[2] <= 0.065\ngini = 0.001\nsamples = 4161\nvalue = [2, 4159]"] ;
33 -> 35 ;
36 [label="gini = 0.0425\nsamples = 46\nvalue = [1, 45]"] ;
35 -> 36 ;
37 [label="X[2] <= 0.215\ngini = 0.0005\nsamples = 4115\nvalue = [1, 4114]"] ;
35 -> 37 ;
38 [label="X[1] <= 0.195\ngini = 0.0059\nsamples = 340\nvalue = [1, 339]"] ;
37 -> 38 ;
39 [label="gini = 0.0832\nsamples = 23\nvalue = [1, 22]"] ;
38 -> 39 ;
40 [label="gini = 0.0\nsamples = 317\nvalue = [0, 317]"] ;
38 -> 40 ;
41 [label="gini = 0.0\nsamples = 3775\nvalue = [0, 3775]"] ;
37 -> 41 ;
42 [label="gini = 0.1049\nsamples = 18\nvalue = [1, 17]"] ;
32 -> 42 ;
43 [label="gini = 0.1049\nsamples = 18\nvalue = [1, 17]"] ;
31 -> 43 ;
44 [label="gini = 0.1588\nsamples = 23\nvalue = [2, 21]"] ;
28 -> 44 ;
45 [label="gini = 0.4082\nsamples = 7\nvalue = [2, 5]"] ;
21 -> 45 ;
46 [label="gini = 0.2604\nsamples = 26\nvalue = [4, 22]"] ;
20 -> 46 ;
47 [label="gini = 0.2159\nsamples = 65\nvalue = [8, 57]"] ;
19 -> 47 ;
48 [label="gini = 0.5\nsamples = 4\nvalue = [2, 2]"] ;
16 -> 48 ;
49 [label="gini = 0.0\nsamples = 3\nvalue = [3, 0]"] ;
15 -> 49 ;
50 [label="X[6] <= 98.5\ngini = 0.4949\nsamples = 365\nvalue = [164, 201]"] ;
14 -> 50 ;
51 [label="X[7] <= 0.9938\ngini = 0.2462\nsamples = 153\nvalue = [131, 22]"] ;
50 -> 51 ;
52 [label="gini = 0.1107\nsamples = 17\nvalue = [1, 16]"] ;
51 -> 52 ;
53 [label="X[3] <= 9.25\ngini = 0.0843\nsamples = 136\nvalue = [130, 6]"] ;
51 -> 53 ;
54 [label="gini = 0.0\nsamples = 129\nvalue = [129, 0]"] ;
53 -> 54 ;
55 [label="gini = 0.2449\nsamples = 7\nvalue = [1, 6]"] ;
53 -> 55 ;
56 [label="X[1] <= 0.465\ngini = 0.2629\nsamples = 212\nvalue = [33, 179]"] ;
50 -> 56 ;
57 [label="X[9] <= 0.975\ngini = 0.0248\nsamples = 159\nvalue = [2, 157]"] ;
56 -> 57 ;
58 [label="X[0] <= 8.75\ngini = 0.0126\nsamples = 158\nvalue = [1, 157]"] ;
57 -> 58 ;
59 [label="gini = 0.0\nsamples = 157\nvalue = [0, 157]"] ;
58 -> 59 ;
60 [label="gini = 0.0\nsamples = 1\nvalue = [1, 0]"] ;
58 -> 60 ;
61 [label="gini = 0.0\nsamples = 1\nvalue = [1, 0]"] ;
57 -> 61 ;
62 [label="gini = 0.4856\nsamples = 53\nvalue = [31, 22]"] ;
56 -> 62 ;
}